
network unnamedBN{
   property software aGrUM;
}

variable n_0 {
   type discrete[2] {0, 1};
}

variable n_1 {
   type discrete[3] {0, 1, 2};
}

variable n_2 {
   type discrete[3] {0, 1, 2};
}

variable n_3 {
   type discrete[4] {0, 1, 2, 3};
}

variable n_4 {
   type discrete[4] {0, 1, 2, 3};
}

variable n_5 {
   type discrete[3] {0, 1, 2};
}

variable n_6 {
   type discrete[4] {0, 1, 2, 3};
}

variable n_7 {
   type discrete[2] {0, 1};
}

variable n_8 {
   type discrete[3] {0, 1, 2};
}

variable n_9 {
   type discrete[4] {0, 1, 2, 3};
}

probability (n_0) {
   default 0.312286 0.687714;
}
probability (n_1 | n_3, n_7) {
   (0, 0) 0.4982 0.26252 0.23928;
   (1, 0) 0.0422075 0.228272 0.72952;
   (2, 0) 0.447871 0.0588946 0.493234;
   (3, 0) 0.357081 0.33033 0.312589;
   (0, 1) 0.165569 0.625246 0.209186;
   (1, 1) 0.0366797 0.0506918 0.912628;
   (2, 1) 0.764958 0.0901997 0.144843;
   (3, 1) 0.461296 0.132355 0.406348;
}
probability (n_2 | n_3, n_4, n_1) {
   (0, 0, 0) 0.391451 0.480965 0.127584;
   (1, 0, 0) 0.442749 0.295797 0.261453;
   (2, 0, 0) 0.512839 0.447154 0.0400079;
   (3, 0, 0) 0.10197 0.64963 0.2484;
   (0, 1, 0) 0.62215 0.100292 0.277558;
   (1, 1, 0) 0.57799 0.0555925 0.366418;
   (2, 1, 0) 0.0217275 0.193386 0.784886;
   (3, 1, 0) 0.188863 0.170622 0.640515;
   (0, 2, 0) 0.336988 0.314804 0.348207;
   (1, 2, 0) 0.0895024 0.693263 0.217234;
   (2, 2, 0) 0.61801 0.293094 0.0888957;
   (3, 2, 0) 0.479147 0.14071 0.380143;
   (0, 3, 0) 0.284483 0.541167 0.17435;
   (1, 3, 0) 0.370849 0.00797497 0.621176;
   (2, 3, 0) 0.312743 0.276661 0.410596;
   (3, 3, 0) 0.057993 0.920626 0.021381;
   (0, 0, 1) 0.146286 0.680153 0.173561;
   (1, 0, 1) 0.0916179 0.257108 0.651274;
   (2, 0, 1) 0.658389 0.0945034 0.247108;
   (3, 0, 1) 0.45325 0.101348 0.445403;
   (0, 1, 1) 0.106465 0.690363 0.203172;
   (1, 1, 1) 0.148579 0.514545 0.336875;
   (2, 1, 1) 0.563589 0.173352 0.26306;
   (3, 1, 1) 0.168789 0.53374 0.297472;
   (0, 2, 1) 0.175822 0.669982 0.154196;
   (1, 2, 1) 0.18505 0.775726 0.0392248;
   (2, 2, 1) 0.0888176 0.42839 0.482792;
   (3, 2, 1) 0.280101 0.623253 0.096646;
   (0, 3, 1) 0.431493 0.431601 0.136906;
   (1, 3, 1) 0.158545 0.530324 0.311132;
   (2, 3, 1) 0.123627 0.628068 0.248306;
   (3, 3, 1) 0.5201 0.248094 0.231806;
   (0, 0, 2) 0.590905 0.110143 0.298951;
   (1, 0, 2) 0.361735 0.366725 0.271539;
   (2, 0, 2) 0.372131 0.248 0.379869;
   (3, 0, 2) 0.0291642 0.553559 0.417276;
   (0, 1, 2) 0.0511038 0.655856 0.29304;
   (1, 1, 2) 0.0373668 0.490633 0.472;
   (2, 1, 2) 0.273138 0.373848 0.353015;
   (3, 1, 2) 0.452548 0.485714 0.0617372;
   (0, 2, 2) 0.567851 0.405995 0.0261541;
   (1, 2, 2) 0.458908 0.181188 0.359904;
   (2, 2, 2) 0.48619 0.109801 0.404009;
   (3, 2, 2) 0.0247122 0.376838 0.59845;
   (0, 3, 2) 0.276901 0.350606 0.372493;
   (1, 3, 2) 0.277155 0.482599 0.240246;
   (2, 3, 2) 0.530379 0.356271 0.11335;
   (3, 3, 2) 0.197 0.42912 0.37388;
}
probability (n_3 | n_5, n_0) {
   (0, 0) 0.205157 0.260924 0.255524 0.278395;
   (1, 0) 0.146461 0.157675 0.586117 0.109746;
   (2, 0) 0.382918 0.389258 0.209021 0.0188025;
   (0, 1) 0.184903 0.0339102 0.161816 0.61937;
   (1, 1) 0.0405419 0.412023 0.298688 0.248747;
   (2, 1) 0.11775 0.0137429 0.443505 0.425002;
}
probability (n_4 | n_7, n_1, n_3) {
   (0, 0, 0) 0.171329 0.368975 0.173465 0.286231;
   (1, 0, 0) 0.270434 0.274752 0.306759 0.148054;
   (0, 1, 0) 0.254588 0.28836 0.116407 0.340646;
   (1, 1, 0) 0.46692 0.0878345 0.0196131 0.425633;
   (0, 2, 0) 0.0595779 0.285237 0.495399 0.159786;
   (1, 2, 0) 0.254038 0.0456988 0.41455 0.285713;
   (0, 0, 1) 0.590704 0.330581 0.0608559 0.0178594;
   (1, 0, 1) 0.174849 0.292289 0.259689 0.273173;
   (0, 1, 1) 0.449539 0.00261591 0.243977 0.303868;
   (1, 1, 1) 0.371824 0.0863859 0.315303 0.226487;
   (0, 2, 1) 0.405259 0.0210765 0.177339 0.396326;
   (1, 2, 1) 0.125958 0.245709 0.441542 0.186792;
   (0, 0, 2) 0.335176 0.25453 0.21844 0.191854;
   (1, 0, 2) 0.365365 0.249253 0.0917522 0.293629;
   (0, 1, 2) 0.0318947 0.187504 0.445159 0.335442;
   (1, 1, 2) 0.0846231 0.318508 0.218109 0.37876;
   (0, 2, 2) 0.211757 0.249798 0.381949 0.156495;
   (1, 2, 2) 0.258385 0.19469 0.307526 0.239399;
   (0, 0, 3) 0.258842 0.12132 0.259849 0.359989;
   (1, 0, 3) 0.356862 0.202815 0.0858543 0.354468;
   (0, 1, 3) 0.130342 0.61994 0.22528 0.0244371;
   (1, 1, 3) 0.19474 0.244085 0.34217 0.219005;
   (0, 2, 3) 0.372878 0.200058 0.00082463 0.426239;
   (1, 2, 3) 0.448244 0.154697 0.233332 0.163727;
}
probability (n_5 | n_9) {
   (0) 0.477423 0.147718 0.37486;
   (1) 0.295535 0.42974 0.274725;
   (2) 0.159398 0.282047 0.558555;
   (3) 0.520735 0.145901 0.333364;
}
probability (n_6 | n_1, n_7) {
   (0, 0) 0.183582 0.307235 0.195035 0.314147;
   (1, 0) 0.123803 0.296141 0.238367 0.341688;
   (2, 0) 0.0599871 0.138647 0.0864541 0.714912;
   (0, 1) 0.300178 0.0538466 0.405498 0.240478;
   (1, 1) 0.23666 0.162269 0.464692 0.136379;
   (2, 1) 0.252876 0.215332 0.371272 0.16052;
}
probability (n_7 | n_8) {
   (0) 0.982961 0.0170395;
   (1) 0.492333 0.507667;
   (2) 0.463966 0.536034;
}
probability (n_8) {
   default 0.385544 0.113891 0.500565;
}
probability (n_9 | n_0) {
   (0) 0.309817 0.282322 0.34472 0.0631408;
   (1) 0.623495 0.170607 0.122575 0.0833238;
}

